-0,512214134077967 1,09123749742211 -0,0117048516942432 0,510049838496257 0,809735655144847 -0,285288416852339 -0,745547258089247 0,339372190813817 0,466315976509973 -1,6993402494449 0,105109286093226 -0,0889351058135144 -0,590581877219784 0,108999738621583 -1,0455128093807 -0,851267588626632 0,297997862966406 1,08007136035135 0,178843307692807 -0,138492216090939 1,21628647928076 -0,248575808078828 0,503292039323072 1,04191203999025 -0,189988315406578 0,974575085139383 -1,01715572138271 -0,0776065932176743 -1,76041684479333 0,0397183357549624 0,667086055764431 0,0131326032657389 -0,763687671368626 0,0540207540786696 -1,45998708982854 -0,224928378253191 -0,0593446209802372 -1,1061058519492 -0,211475712583122 1,06195755936855 0,128388836063007 0,776178830977145 -0,181393871974538 0,553062546821145 -1,69564416035952 0,896541891004658 -0,354903528823368 -0,375296194325102 1,71147257601141 0,260479535574884 0,980136268576091 1,60919241481182 0,368004518247584 0,0965230232215868 -0,100135539631193 -0,107916539607842 -0,21814629126527 0,00948671336355845 -1,17329154584038 0,264214011282507 -0,00949139136648014 -0,290969526180074 -1,61149996781501 0,125869820058312 0,00832603227838689 0,922543934910659 -0,743463307494088 1,2722949670856 -1,43093226770079 -1,54809933731619 0,26149446679504 -1,72406135514364 1,92932765452579 0,130951545148894 1,87763716842412 
1,28820402686515 -0,890912708238539 -3,76410445481383 -0,611977394284229 0,446063635732722 -0,431432392595552 -0,184936878963428 -0,798258368600774 -0,83831540344253 -0,714042168326211 0,718041910451761 -0,0924091187338905 0,661751871648494 0,0544471191427675 0,686236646340456 1,48318574905348 -0,394489851149116 -2,87486022817965 -0,389498000294191 2,31375670197887 0,0131199329497668 -0,247863068404217 0,533225964599797 0,161768966463404 -1,20821656382287 -0,157192706130198 -1,28588085506062 1,84944274921406 0,100149811558105 -2,2079084240314 0,0688318236923058 -0,172031213988537 0,122771675334975 1,08736581742772 -0,685751060003462 -1,2544329553996 0,800602937345951 0,512668405570304 0,965955720055317 0,68423792659349 -0,210427826930715 -0,279229389196047 1,42780412305771 -1,08079935041591 -0,626482740857423 -0,161928309742265 0,380260336362876 -0,216600602723864 1,31902088879213 0,715189750090089 0,745282713241739 -0,763098306810235 0,276121413212407 0,904565002021105 -0,773318781533646 2,18328998234679 -0,198543490975498 2,87169189437313 -0,431158305288306 0,883693128339843 1,50335524419488 0,203420976225051 0,990596220480417 0,757043307482905 0,795009432943477 1,06910088569017 0,329361576116278 0,340629195183 1,08987560566431 -1,20521964637105 1,26029047039801 0,213005234093648 -1,45169752627108 -1,182188967376 -1,56799603443173 
0,0449304302724907 -1,18677948411729 0,378839700084273 -2,20593940418966 -1,42021072679604 -1,9476741234629 1,07556629075684 1,39030649030657 0,350769276919688 -1,8115150563332 -0,989425583089025 1,08915018395727 0,0827983893300204 0,917022472220098 0,173284906875118 0,035803062005616 0,820031961150907 -0,732217293965213 0,0356429637455897 1,15316573562606 0,324791700030026 -1,42006420507555 -0,488113575151909 0,217676644590688 0,0234531557663036 1,11319538029335 
