0,447538756424969 -0,688217017513243 -1,30835144856544 0,262097295424048 -1,08981343170168 0,559199548663194 0,163248384269007 0,406493091933494 0,0759611210083056 -0,411738827124169 0,400707671066705 -0,811504713723203 0,633268295053177 -0,053051457405143 1,0253951596717 -0,192937883667483 0,62439153392265 0,851665998474764 0,768150474097861 -0,785419294018965 1,2251553532526 -0,930526235446726 0,0993316717299808 -1,22939578058624 0,267080905567298 0,778032967104064 -0,00939507547399776 0,565015708365145 -0,242512252222677 0,401360220356612 -0,96049979156401 -1,01578375211137 0,187641560511089 -0,221025528083036 -0,678631195719873 -0,111069671621701 -0,191141173280471 -1,5817066917938 0,273417657872948 -0,391653351236931 0,4286856037161 -0,0994929444005028 0,973283384970889 0,081828055687212 -1,28474171721119 0,79034277629298 -0,150996413596899 -0,0559580163855014 -0,91949677082335 -1,21134419962404 -1,30779244070542 1,33143667484446 1,11744022875399 -0,458242838363915 1,46567460959416 -1,15328718850493 -0,315577316316415 0,278678674882976 -0,527116422456992 0,360719335694045 -1,17048424331481 -0,863365766568823 -0,365963961735161 -0,042389318834924 0,0114456699085879 -1,70751150435854 0,134117177705612 0,266040482035966 -1,95261337560144 0,500305930216824 -0,109917986610105 0,668667936143466 0,797362321489643 1,43337853403175 0,729546688008261 -0,246381785656436 0,13767307794156 -0,444341776264086 -0,862321874424298 -1,61730450013807 -0,849938802311204 -0,716027307999506 0,728622966913487 -1,45500439709248 -0,367129186737107 -0,3903641703858 -0,493455990397322 0,312131970713946 -0,349824044526909 0,131963414291574 0,572685977168138 -0,208470951302863 0,423457320126901 0,366402307983934 1,78660268396554 -0,31736407535073 0,166383648547672 -0,276112484609201 -1,42682013145818 0,29495402448693 0,0992364319610756 -0,318891683920852 -0,797074643013318 0,066105854682338 -0,663389780627283 -0,361767083990506 -0,146909972466874 0,372443034501839 0,076235308300722 -0,761473549592497 0,0214156522830483 -0,304984237204717 0,449041933703912 0,64867103319071 -2,73045340053474 0,184935988670582 -0,509742213760125 -0,355891514477221 0,992219905576459 0,901294576095229 -0,75502719832262 0,202672211664334 0,91180886608919 0,180455543383362 0,119648187030297 -0,0410228577015279 1,71025450192067 0,0261221493646603 0,715676533936852 0,267125075977944 -0,795562111693219 -0,112063178216797 0,932826040826271 0,726410343850602 -0,0955287993555324 0,851613628048368 -0,326756747463074 0,261177190184935 0,921431461170802 -0,0719756320365566 -0,607193976099745 -0,592853875409309 0,433083619868258 -2,20133483140711 -0,77099953055586 -1,31425770987386 1,48087118809899 -0,0654895768083819 0,47345695135586 0,58732608051786 -0,56955370644403 0,623409109449102 0,292857584213559 1,02274864884506 -0,510062834671471 1,12507192413667 -0,405266834014201 0,506068323433216 -1,33222761715504 0,648755038188204 0,981851847570855 0,104994945300858 -0,671371175728369 -0,587772655506864 0,77102943625584 -1,60634090247357 1,22798028615658 0,574459529445487 0,0819500015466292 -0,487113909554485 1,72733005551926 0,392320986178712 1,26571815264518 -0,413995761204155 -0,62611569951595 0,0494778272859961 -1,05312441949874 -1,62583590437638 0,477056452776513 -1,40135015324892 0,272363847965904 -0,227089115383838 -1,50241393442204 -0,140596125570778 0,752864481191922 1,31726109115178 -0,0721270025225582 -1,50416459853754 -0,448464077125096 0,475191314432202 -1,58155752203894 0,213698343544542 -0,201938699022926 0,86601964373458 -0,311718558622338 -0,380736914771163 1,62066571629225 0,0461563847755012 0,106435550026964 -0,225053250915825 -1,10668863910889 -0,461005689529736 -0,0989067764583665 -0,263371749079417 0,11475534011957 1,55827484870644 -0,379911646226643 1,40516969913512 0,775224431331047 0,485230494929326 -0,136352467925289 -0,376495225755083 0,902303583926811 -1,09009169634781 -1,38786728813665 0,591249511272805 0,0391860528522783 -1,71480107527632 1,90257941021024 0,483364412676048 -0,447703589701666 -0,372013567381968 1,54657862947183 -0,116970365088399 -0,547935882691665 -0,0369522424711769 -0,734022561733583 -0,526808030801639 -0,486482423290586 -0,331558535364036 -1,56892755658087 1,73944767315362 0,818012507509097 -0,537825638932408 -0,944657715750443 -0,230650094397585 -0,160507608356956 -1,36460818600104 -0,0794422081942065 -0,382033756758794 -1,40176749423551 -0,0722525119177242 -0,739742923250336 0,482770339390307 0,126473411454706 0,47891896373288 -0,0601553602327786 -0,387370525081752 -0,0942202978035444 -0,23281262549141 1,23882692311362 -0,114674267196342 0,766973977933462 1,63989065056217 -0,410166420062803 -0,395445159316572 -0,253871143096332 -0,247778507688605 0,811126622882413 -0,632924172533641 -0,827817519218346 -0,905178973075994 1,47621277856391 -0,305141581219698 -1,93291049692442 1,59153106141575 -1,28184454805284 0,655102662833432 0,737275243650065 -0,35722144702788 0,234583351479315 -1,84697191571888 -2,01832436471883 0,552189679034646 0,928754655183695 -0,337349756462582 -1,49253075373598 -0,16235063046857 1,53828609565504 0,537052465331738 -0,0966547321722176 0,253459197007297 -0,283330410075367 0,518193839389915 -0,663490270260548 -0,724874914866318 -0,0566505008429743 -0,724696061376689 -1,40098740165079 -1,11703680997035 -0,377889126571393 -0,0435618359198058 -0,555063722908081 -0,10943949579872 0,415935308582798 -0,15629998331132 -0,718897256602881 0,457099236746579 1,03456161201683 0,175174738059556 -0,600958138619736 0,179502742587144 -0,60109872899571 0,356085242521542 -0,497264399566538 -0,667448869487746 -0,17638954679512 0,184770232845536 -0,522419147862956 1,28022483005203 -0,864189011071683 0,117202729467888 0,343780492744418 0,551685649403501 -0,556444220038592 0,83531735953044 0,0911554527439651 -0,927487908878841 0,918822796709915 0,793750376573666 -0,675568691273505 0,157695333421714 -0,807408330376028 -0,392655916294294 -0,925895960137362 -1,47584934026478 -0,967539996657227 0,68764838080832 1,30944742002971 -0,196304445891613 1,43056403230241 0,947298758058294 -0,134285419594907 -0,500678107458692 -0,122958156643643 -0,491829366135651 -0,294207471258486 -0,133538174477055 0,887289740749954 -0,385052035195103 -1,57561234576813 0,84180318901177 0,499731139340522 -0,118383874923526 -0,887965337308834 -0,80887037627404 0,686476740584733 -0,577179845125582 -0,147296285022425 -0,0578218558364768 0,0982539969474466 -0,970079958462556 -1,08206908520538 0,212925190769058 -0,222908604327273 -1,61573413337922 -0,532479459591904 -0,656247962892167 -2,10904679781315 -0,517618912750524 0,803806161199832 -0,837966814201934 -1,06682711506252 -0,0934686344213172 -0,276222025926405 0,392408284267512 0,389276203142022 0,346391784672919 0,319662894372349 -0,0732608228591482 0,370977759677585 1,40879784898972 0,0798246253562973 -0,134970890871537 0,189717960630595 -0,163997807258512 0,755245361049645 -0,0393858835469688 -0,0757330605960649 -0,372960218919861 -0,289686056225646 -0,908245998965708 0,78847806780406 -0,537465228686727 -1,27147327947737 -0,505753942241964 -0,711274099425801 -0,0609394237560735 -0,404693800273748 1,24099126429258 1,26308071967558 -0,0743041803755494 0,991362966611414 0,351547653600078 0,624797992976651 0,646549964328809 -0,166683639679344 0,513019145051491 0,44100877709161 -0,737025848183783 -0,065752517645753 0,680274270932776 -1,74897750172941 -0,762705543000385 0,969893992853425 -0,153483167918808 0,738242947187454 -1,48460380658135 -1,45782774273062 0,18975543459646 -0,812944185729326 0,493340766805982 -0,338910337854878 0,472613861531672 -0,0684919657703855 -1,08994657268672 0,528204459842533 0,723117259765729 1,04313832504652 -0,889489645996745 -0,462008431284666 -2,06117789420194 0,0728171753535436 -0,203436122534623 0,243154947646025 -0,53982216376973 1,30389224085167 0,554555893976829 -0,457175501142965 -0,277281456201842 0,264672188938296 -1,78284913322624 1,02555570114937 -0,225537680145554 -0,0677929354392857 -1,1362265197518 0,0243985006884925 -2,0669543950278 0,765839966263736 0,402355307965574 -0,390890152226286 -0,613277674206744 -0,370861246176531 1,13272363224525 -1,05822373094515 1,37780691859822 1,80823866805623 0,777519914502411 0,528437111653348 -0,0373363857695944 0,804439393183727 1,11717040030207 -0,179736273069834 0,511875913009921 -1,15913679857826 0,983031969919399 -0,273538443655453 -1,20782805907174 -0,589443451900367 -0,0381035247895417 0,0257068057552724 0,946117929147504 -2,01485161751219 -0,733790556127519 0,620275849380025 -2,33595700393772 -1,50499032968436 -0,755862256920906 0,496299660185069 2,11496594048405 0,309810679264948 -1,06957522029015 -0,323603774988596 0,357893674911609 0,653699776315055 0,642412368638073 -0,876057921786894 -1,05077463123887 0,038486532942505 0,336369404186094 -0,412236238781203 0,396767614165659 0,0380383446074135 0,778492819789947 0,20689674834796 0,253959966911513 -0,0373241968293364 -0,483074745753092 2,13920108916534 -0,831132533785079 -0,31083597979723 -0,068697879442414 0,564387811545904 -1,60505915517808 0,32726730682219 -1,53265028543032 0,0894849390623711 -1,93303992995218 -1,21298966243392 0,142039683159617 0,985050963411071 -0,0424847226254953 0,60306131052479 -0,210004358428588 -0,297864509549928 -0,0280346959299762 0,988960659761913 -0,0896522901469216 0,91821388440511 0,939145726796726 -1,2630970708415 -0,904350452070761 0,741912145301869 -0,0867269482404083 -0,138895314385532 1,53926151809819 1,02492973438568 -1,30632213619448 0,515863456954157 0,929874250068467 -1,01049833566412 -0,20269351768063 1,09266782438312 0,18528757449175 0,438863736958213 -0,213195590154095 -0,926359977818345 -0,157430071917246 -1,31281980538145 -0,0323817586139277 -1,2742514562467 -0,233022968104525 -1,0781957204317 1,94402678181983 1,80110984502126 1,38315426957313 -1,18905455000408 0,60856699367188 0,514978249987345 -0,75257646629839 0,166736024282241 0,713604520802225 1,02920490033199 0,449839637906592 0,175966514453345 0,117725583322865 -0,860321597964871 0,167193595901857 -0,732994739906896 -0,954375578949425 -0,248565435768342 0,0590231305116286 0,329527010093142 -0,142820856129792 -0,533630288473867 0,370369223224085 -1,11107307149817 1,27149039804759 0,236724850315988 0,0758495458502924 0,497396236968248 -0,878127998475034 -0,413374405447789 0,00972510265548618 1,40173956394734 0,122816451493223 0,205783541972088 -0,951464050779461 1,24218759562061 1,03880385077318 0,67985929675927 0,676064837794458 0,475394557952653 -0,408649313667207 -0,824840312737087 -0,300941297620657 -0,11680161020081 -0,334033751466079 -2,07942298011339 0,496231335756227 -1,01034820480846 0,576101940169572 -0,462396314822637 0,109755946727549 0,513857697335145 0,47857548736392 -0,168997634261593 0,197855046253118 0,0853554492505501 -2,01165600194399 2,43269292411964 0,261913581137084 0,898467344524214 1,45130156139667 -0,773358767584814 0,46560499416225 0,377955668362606 -1,10477573742702 0,986586128551717 -0,737092036077511 -0,34378474619911 -0,0397320440362117 -0,132971271527048 -0,294882376953688 -0,200309943745656 0,176226898714192 0,230969682043 0,150261639154227 -0,619068142352115 -0,179440809206028 0,398847582680009 -0,202709870677815 -0,596479345127809 0,41424477397471 -0,638785656130837 0,0364767900947249 -0,713211660957933 0,13399159652805 1,02541051376586 0,948786766395385 -0,887941466169555 0,144988820548621 1,02417972090678 0,145897600321374 0,057868072055893 0,0969734477908452 0,0690681246183042 -0,0804116931075123 -1,23462358110605 -0,877286086239779 -0,333459834431361 -0,518012550165868 0,810222432531792 0,912770202436477 -0,722465313714991 0,610281547202079 -0,139807032685034 1,38218336104413 -0,732754222511472 -0,200551105695745 0,105898683490785 0,980183554962488 0,477126640788274 -1,1037639936014 0,141086205195731 -0,0146042598561046 -0,348966359630534 -0,397293763508602 0,841660792251387 -0,00665873385307689 0,69442402922789 -0,0704541977410899 1,40414984395338 -0,607856553620287 -1,4787749461226 1,1152329644348 -0,405941374104564 0,604785212421342 0,839455205934815 -1,26954330253969 0,572332258550708 -0,241973869840905 0,279881860125113 0,0058450709350514 -1,74039293247326 0,841017879678392 0,00595147650026054 -0,887840715108513 -0,593983842839325 -0,861993356317004 -0,681187841881231 -0,216122893953684 -1,55355434038438 -0,415825695157703 0,215437787317562 -0,580985708921395 -0,358086269757439 -0,324285847014389 -0,459127465287715 0,615561732649624 -0,366394059455625 -0,3983079460204 0,239559926426787 1,64762197168517 0,534145950277223 -0,151190059861498 0,631827550824796 0,455254441808879 0,692087444206003 0,785154860045822 -0,438160229743631 -1,37068167739573 1,6788969219998 -0,354269233547166 0,706355445411389 0,088871977378318 0,618209281564221 0,434954198011038 0,606543975641762 -0,36105664155877 -0,419393694185468 -0,559548034984308 -0,854046175073218 0,60553143806816 -0,0494098848408741 -0,172942936986001 -1,00619506043674 1,69685211948129 0,391974414272419 -0,490938486539033 0,488954623232547 -1,44241871495744 -0,677233762027526 -1,26588746770224 -0,395039874806095 0,717610917982174 -0,162189596762347 0,536532473300435 0,0940903413866899 -0,590864946866637 -1,05411821107751 -1,15382847067993 -0,344625531609222 -0,130263373625945 0,486225064347633 -0,313911520658214 -0,920997848752725 1,67011030610368 -1,29513452435577 -0,516829224838734 -0,404885134328798 1,5561772229419 0,0692097444716078 -0,733528096845825 -0,532372534716887 0,0348552785195265 0,993763699452218 -0,168878803326984 -1,79400256467045 0,554245796020419 0,178379770060961 -0,131087477041247 0,239809949078911 -0,227191740381232 0,409979283741823 -0,346026626515988 -0,246644257990546 -0,333283099756497 -0,693316894075985 -0,615288666369528 -0,900906654248743 -1,27208753937705 -1,6308267682877 0,603596455062527 0,629153225001722 0,196239144061677 -0,372528424127242 1,14008290190152 -1,23818163229446 1,47118845359016 -0,705580859436566 0,722433137518639 1,25993227662272 1,27167001454097 0,839396200036478 -1,23525055223852 0,563546243080522 -0,846234739020357 0,0682164245256981 0,852359964334226 0,557148487292648 0,0215588826289934 -0,397639307316635 0,00903836826498597 0,102105593070581 0,360014632664432 0,199011799739985 0,300428602744602 0,509578287210371 -1,84549153316121 0,155931404203221 -0,562366764172027 1,62001163196457 -0,702041946317718 
-1,2867149814101 -0,153780797807301 -0,975135585212156 0,325945468374045 1,25456531838262 1,27629374189114 -1,29715979437184 2,80559899641468 0,182452769767943 -1,17959117723002 -0,35904159961041 1,79982674498622 0,237121986901365 -0,168954606617123 0,73141743317595 1,450745058439 0,823571253873788 0,364100366723919 -0,91128223315797 0,745629300033691 -0,70347998622931 0,410072195972912 0,0911992494620722 -0,623015904159077 0,812310442209629 -0,013458039022822 0,280461017973236 -0,559727115373743 0,495546015393124 1,74056928799187 -0,0423246853720569 0,402703320487333 -0,3713768014402 -1,29605954414044 0,479337150778966 -1,06304125188164 0,154234803116138 -1,54634628392937 0,130278433841081 0,681548470873763 -0,286807738246693 -0,228379459611731 -0,691208981130517 -0,717406792152171 1,27046447683858 0,352417010877847 -0,30009890333984 -0,405932831343413 -0,0145719437307907 0,13146704227068 0,105747032579792 0,759840813429161 -0,348892892763294 0,20507580534083 -0,172556793260691 -0,298558999809895 -0,712107788250603 -0,654037448798059 0,33953247300641 1,00856942269484 0,768884834547893 0,61372369534755 -1,27492972958544 0,380617477687509 0,702908572141645 0,412899686900003 -0,0342557113019166 -0,0057794868088177 -0,640076466572704 -0,590672507324377 1,3559174725037 -0,0785184059224685 -0,908903822415807 -0,484381489946273 -0,391108231883379 0,0689722199759638 -1,88861038056009 -1,35038642228949 -1,22210187142159 -1,35609198557994 1,31052833314988 0,256505326120521 0,691515670856004 -0,181202296923733 0,817512942319038 -0,580835051219662 -0,705701436254071 0,63479077429075 0,543254237509726 0,322202957848885 1,26118492411547 0,788799977474321 -1,13522533849793 0,183579686823451 -0,645319794712445 -0,565656329083938 -1,07631410085608 -0,291772323541893 -1,13903371870262 -0,310435434871298 -0,550783044450619 -1,31971435839353 0,0294579452492502 0,393351218014076 0,955676142176937 -0,611209907469174 1,84925227562162 1,19085493474963 0,559063627769287 0,980231960180732 -0,497827640117545 -0,0200035058727462 0,868597025644667 0,703266896376762 1,1870162330235 -0,525753962549828 -0,783644560325255 1,1120399952046 1,01049347163167 -1,92966855911884 -0,0840620408082542 1,060846329349 -0,676298739168844 -0,48753548140228 0,687541481714464 -0,0970415479722477 0,3244177095916 0,557663065949826 -0,00904817937495138 0,47135811242083 0,378895615866797 -0,910059658733149 -0,352426558145359 0,279058920842967 0,0191735822354058 0,929557399645979 -0,729806192247348 0,481004946112124 -0,910610983224281 0,436091076680407 1,0031118036471 -1,65581786645217 0,229751613692028 -0,636963794156712 0,658999299229926 -0,546894385789886 -0,179575271951368 -1,15402987944886 -0,920165998451614 -0,301145858684493 0,712139253366949 -0,675864233743467 -0,220651992623321 -0,183507529595971 -1,3526244680532 0,955340325731207 -1,80699847647107 0,158197993455395 -0,313286525274454 0,388567935484689 0,0783756596281397 0,341903944263844 -0,312282377217455 0,012149348622281 0,0936955294476238 -0,849239239108762 0,359662158205122 0,525548036772539 -0,0788116742822272 1,36780732817581 0,739882536430518 0,842931299297292 -1,61238920467531 1,12981423436738 -0,339322807982225 1,36891570739116 1,07373090420152 -1,82458189319472 -0,50234803952818 -0,712948196901637 -0,354421344295964 0,572230430065092 0,781064680626621 0,494438363658615 1,45988998478491 -0,735917312332333 -1,00879580864747 1,39013763473557 -1,02908373315976 0,729051331300904 0,589483841974823 1,94085038716808 -0,569364847531686 1,03625691528517 0,827272467564001 0,303160639829488 -0,627911513175082 -0,504296155295359 0,0311409407119078 -0,0814294774805234 -0,860444224248048 0,976856048534732 -0,590129591266128 0,479659874554414 0,411166530425956 0,98612866639713 -1,10984634510693 -0,803891500541278 -0,244992711035897 1,11929554531453 -0,66301917426503 0,541995784018096 -1,30889076259703 -1,35612624472481 -0,0673746182146696 -0,996613535945747 -0,00717672232743816 -2,7580540815051 0,619161349125815 -0,800110666872518 1,25707867477676 0,686741480092454 0,0395230800769435 -0,0142846873672511 0,230733453956203 0,385283310093945 0,598553235380214 1,12046054639939 -0,205790499633774 -0,822199981017383 -0,134922921950739 0,419483813107744 -0,527692072510849 -1,32000660946785 0,852094299369856 -0,0319121526380997 -0,336776219858429 0,481183268166958 -0,0863863483225507 -0,55123252605523 -0,0258907392171129 -0,00689883437963627 -0,0740229806692631 1,43486396237157 1,03657094767138 -0,285222726459327 2,58606353071492 0,163586651531366 -0,439548845206607 0,761615487416698 -0,30022506170105 0,552625218771194 0,84807220984445 0,858493329319611 -0,794699917745295 0,472971688015188 1,42081259580913 -1,31400836455583 -1,48847888483292 0,412780502592021 0,046286326260878 -0,331898887346655 -0,847159964524676 0,249948565809827 0,307652407194816 -0,130336426536693 0,353487018799638 -0,443774372642332 1,22731705392701 0,0534583698134807 0,186375011953897 -0,635857339962821 0,0885495014832083 -0,522563766150403 -0,0859215273247131 -1,67149061866643 0,921962335939068 0,976742228489584 -0,245280192609121 0,593952322189779 0,169615235240805 -0,833071434114907 -0,587413347930678 -0,331815855307337 1,0653475901479 -0,705127373580237 -1,01222145300841 -0,207206984980223 -1,32274666893509 -0,177815022419643 -1,44397929522619 0,508830075196764 1,15522689808137 1,37074014070454 0,710270506055032 0,141629405100795 0,499424231735403 0,452485921915254 -0,146033213515881 -1,11524417653958 0,435189936579652 0,208539205786811 -0,401267690495928 0,24328868735848 -1,45373406636246 0,171576662749239 -2,08049193741317 1,56035865461045 -0,124225883093747 0,12766015441306 -0,150797435785799 -0,303016295189285 -0,330322641413983 0,658789591204264 -0,498186213637961 -1,05062443783561 0,210903794483393 -0,299461258661481 0,132521025907459 0,431740443286172 -0,537953024206379 1,20582536078912 0,811280523103938 0,106329785269541 0,419977556702763 -2,07927180710093 0,425859392873634 -0,372836155464695 -1,38253479404513 0,136278725311928 -1,25765780340157 -0,589466439423593 -1,5636561727829 -0,655613963394848 -1,39475007723311 -0,200871012541265 0,0153500092700046 -1,14986905052735 0,810908026662561 -1,42846486352911 -0,871188343437392 0,828671257801913 0,447367263375455 0,708638048547948 -1,11693766191018 -0,693107950970367 0,747311495389554 0,358949697144947 0,268915346306443 -0,404165058529441 2,46783628635694 0,0242652970718844 0,557129063152612 1,1490914396612 0,523181882853534 -0,697280482711379 0,411670351653145 -0,125435818704335 -0,690959806087316 -0,114447548136071 0,30026366758131 -1,30459166448709 -0,0962186416730786 0,379383752557732 0,3425532821333 0,472404588560526 1,54967157018773 0,811729058418782 -0,130285939569125 -1,16232537334086 -0,55573333280188 0,729657774971106 -0,400779091247076 -0,198539084280475 -0,384708230181248 -0,535598835888142 0,0393053137676103 1,49224071400451 -0,272447252563104 0,246079273232952 -0,193175236099297 0,76007675426134 0,855756691128061 -0,084329843600804 0,449505897237072 -1,22011472842586 0,798074916790484 -0,95377951328599 -0,246794715244258 -0,884702604799298 0,0912883422548539 0,391618318100121 -0,275155473673607 0,144121947286306 0,582280988923396 0,462342023914144 -0,234393789076591 -0,119002791198054 -0,191677842108021 0,3377724191454 -0,448592711674568 -0,0868607555005096 -1,21143862362779 0,385723599993381 0,267949275843992 -0,137683335672916 -0,362669672397056 -0,246750087394443 0,854966168198279 0,240463006520622 0,722081083611453 -0,510632246619508 0,684523601823907 -0,440163060451465 -0,538567286839709 -0,142028842823121 -0,678088138133907 -0,736193971102229 0,377933681714665 -1,40394615643004 0,507100841989674 0,14813514868901 0,822787824892415 -0,177266281393603 -1,18008575886919 -0,977755528805191 0,120065218655749 -0,885273232523288 -1,01040153417586 -0,668594813342632 0,322767135627033 -0,634283648575652 -1,22656823011549 -0,209815993514511 -0,0335032686308694 0,533426679478369 -1,00478834654276 0,788312901025084 -0,353233599638348 0,753302764739866 -0,75408178348769 0,200769255638826 -0,587983065639618 -0,232323572166951 -0,0925103302927638 -0,295472152108427 0,451640648414977 -0,0770866960553775 -0,311503792000766 0,328140155668949 0,324129400782679 -1,18606737223017 -0,713763685173588 -0,859284840938493 -0,34275635688415 -0,485553467877309 -1,69853899855194 -0,247168992029983 -0,0342226062724209 -0,721591030129148 0,667233144488379 -0,695651018238608 0,696415374928837 -0,371996758421648 0,573477497915041 0,325238286672603 1,10343216736868 -1,31815834668168 0,723860685909105 0,102764296235544 -0,457477537606068 0,99895160359919 1,14998400332232 1,51543954509116 -0,728517401581313 0,349952517062293 -0,331719407128525 -0,359644763206146 -0,750901114164353 -0,212799213914186 1,47521868547232 0,126979043164721 -0,428397866524021 -0,456292544027523 -1,28133746686914 0,502965293098225 0,588068744384265 -0,595481173645466 -0,287173009479128 -0,91664022833454 -0,731952002613163 1,03141954382129 -0,0173540035432554 1,10593747142845 0,65046211522392 0,550455533742087 0,0554563478447274 0,213980193012665 1,09084487097566 0,75989031053647 -0,447827142371495 0,423497776998293 -1,99941303409352 -0,466774147075363 0,443697956194348 0,431172550001881 -0,991452814218037 0,0922537239646648 -0,236318705650542 0,16614487075904 0,0102621003596416 -0,593954578301282 0,249178576983493 -0,541149038257137 -1,51286920674037 -0,278256781029576 0,314969179194837 -1,05522702851065 -0,537050795373321 -1,0157922925587 -1,0398241851527 -1,52279526741586 0,860162675637798 0,855216581886363 -0,70806701830008 0,656534713685908 0,351306434280689 -0,620593236384181 1,74491364675993 -0,098697435747842 -0,741139352618464 -0,246742192209616 0,819780434654988 1,03144805623411 -0,582043458287961 -0,494723517062371 0,410755455030789 -0,925341534613866 1,41411516283463 -0,75605761281564 0,170593707983044 1,62243514910478 -0,412896691216595 -0,17293639088967 0,659986373677994 -0,696426258820864 0,93482385205449 0,273825372783957 -0,740034256716893 -0,496390009804453 0,814513629288958 0,127291636016051 0,742137479554993 0,438703992570904 0,961421664270045 -0,169714760374782 -0,150165279051492 0,763080999596087 -0,316089547853766 0,154821176357519 0,74174715235624 -1,40344296407745 0,917187296921483 1,15394709643307 0,654146554700527 -0,932848900327851 -0,210185323041972 0,78656591400067 0,736622544102598 -1,28539845631274 -0,544021369732494 -0,35921823494049 -0,0354851047121369 -0,236088480076457 -0,0713463627902456 -0,260394501248514 -1,25937846903839 -0,167280958037213 -0,597975704846895 0,343937872874955 1,11769803537832 0,381153153698962 0,450974675145071 0,466023430903269 0,432108435238643 1,78274426805488 -0,028423912987792 -0,44230880715491 1,34077245403038 -0,53292221328452 -1,45859966802948 1,1396752496669 0,428567820647717 -1,50439280196397 0,881227945798198 -0,164589474747219 0,0287281665335216 1,4398750601551 -0,544187021197547 -0,33836336070256 1,21848553328652 0,131191383112109 -1,57450007610704 -1,17151476727376 -0,193244028065476 -0,27488525453945 -1,37593675603175 0,916558703751881 0,00983380481922053 0,0584977922125793 -0,287647737536335 0,171801423076792 -1,43293087001135 0,584425555012546 0,471781658248797 1,45805149503956 0,330088318867851 -1,11499995494033 -0,790785075073174 -0,393049212483597 0,172826308994684 0,243845978372621 -1,15680256275435 0,17864167468969 -0,668386055258893 -0,479148101968999 -0,749614416743376 0,561328733328207 -0,155659684743062 0,854931813339533 0,0194655848378529 0,0686563397839495 -0,395012683740268 0,649555033187114 -0,0013604628023821 -0,667389041153089 -0,584571822642995 -0,264955858145165 1,40387725094726 -0,751063954415845 0,325904194762213 -0,602330143257479 0,311756611015247 -0,143152523653144 -1,17349416168252 -0,307696140706712 -0,0812331585740965 0,145635620008658 -0,026640300931092 0,655596210555325 1,53809739453208 0,21893765370366 -0,687858665143961 -0,517513320400779 -0,255605748451906 -1,36302703269761 -0,800284696212737 -1,22207869953011 -0,229727666196431 -0,99291201126435 0,23378004558032 -0,778509043295235 -0,629468885315994 0,268231623221036 0,970979425235955 -0,634529782509847 -0,8946978179647 -0,600558622654546 -0,27010332838821 -0,626387937345956 -0,168213838744643 0,81068223845776 0,684592146278071 0,493476362428166 -0,0152079295142263 0,537826470295256 -0,268595523862422 1,30495608047261 0,34261859375084 -0,100578317250102 1,47968770531841 -0,525037178665439 -0,45736227681991 -0,174405858537073 0,874383080007005 -0,18471729879398 -0,363613591090325 -0,495636242216762 -1,66164884146767 -1,29981628639627 -0,270949829549756 -0,550241350926309 -1,29755203542293 0,429280906038688 0,00590108662728016 -0,946457291328199 -0,0614256226878994 -0,851337898204189 -0,297605407723966 -1,13528988485571 0,996955522729084 0,4632848331975 -0,8369026966417 0,0597307043608472 0,0154714262735051 0,00186533565261747 0,262802734840198 -0,626723257576393 0,70335303602502 0,611649642112504 -1,45137313010594 0,340110964162027 -1,01185909796813 -0,57623600818039 -0,23857639514223 -0,423756143574526 0,592256997205645 -0,310824009584429 -1,09832332860425 -1,11541680183956 0,304099200037137 -1,94272915917996 -0,0771038959104866 0,264373751644768 -0,759196200803497 -0,158563197953045 -0,688709432125945 1,06508220566755 0,234832120647928 0,0208334795525668 -0,212265241558757 -0,400823061636536 0,282135749691996 -0,428833570242003 -2,33305971723634 0,128506086603397 0,238573369727242 -1,67642772733894 -1,2450064326328 -0,886392555246825 -1,28862647817443 0,457942639300991 -0,137146974618772 0,665544624371972 -0,235974954809459 -0,427149395560293 -0,573166580685349 0,685981331965889 -0,153058913242587 -0,870183272214736 0,352936514998143 -0,0728596971125174 -0,432317116100928 -0,57880979523932 -0,946545608750115 -0,51604021965747 -0,679887127066093 0,13996293788293 1,44478088323599 -0,607011533762813 -0,820859128071258 -0,705940887277937 0,341690299868136 0,205149361047461 -0,332283782850373 0,99462243761291 -0,167580876729522 -1,07059880350085 0,483673683636716 -0,852017647586543 0,869555983835951 -0,0628266020953743 -0,148729868834948 -0,0963674147003492 0,123716108554212 -1,0036760487137 0,929987609162137 0,553455588861091 -0,776967504124927 -1,28543095158112 0,402493565055013 0,356935374957524 1,02421964997155 -0,212230873202551 
-1,2616039832659 -0,0480455690132957 0,75768286579316 1,67904366448175 0,0829196062486275 -0,921602447486417 -0,69160912050995 1,17767028043522 -0,651844869097412 -0,087442442857498 -0,143038364860215 1,1342996686509 1,46080108465389 1,63497737161125 -1,84423596775556 -0,891522905551879 -0,209486255837804 -1,6879590188475 0,613233023150156 0,44716992032074 0,331622735883038 -0,644189190682276 0,534184911117311 0,803165573626929 0,843018337857237 -0,815070638159797 -1,25902005816964 -0,214462887303764 0,868209636414881 -0,765896148342629 -1,21666018055396 -0,446046868177136 1,27522990328698 0,856463674465707 -0,0112681750797767 -0,832015474056624 -0,38729146146807 -0,0349709500633067 -0,604902587714853 1,14219616982345 -0,277237449794249 0,229232380764374 1,03146423026922 -1,03652968646175 -1,04094448815514 -0,462291173814485 0,546293139894679 -2,31489393145247 -0,492349063729758 1,78539412829068 0,0842182786227507 -0,459033281413742 0,387179320788773 -0,708166350618353 0,804857980813992 0,499975324949442 -0,682261394775178 -0,226005039324614 1,88928247839976 -0,591436314380656 -0,964688140546836 0,0307007268878142 0,248112662420878 0,805983104351064 -0,131034171374344 -0,013323632186171 0,571424961880891 0,0516953049627721 0,145680235324749 0,0610459941322661 0,511175229580954 0,301318357804862 -0,306720436079179 -0,877842252188377 0,290025701780637 0,317971037572 1,45540457467805 -1,02530947739331 0,429766466452534 0,852716712826915 0,0958115298781439 0,188001104256532 0,259646447062385 1,55383566200679 0,198517805471526 0,474828630271595 0,0786601818510075 0,54765971163497 -0,534321507048406 0,54918802695338 -0,154022866019274 0,123827301045796 -1,01105338781433 -0,0710429861640342 0,79983692795398 -0,898551786610277 -0,296410692813517 -0,309281367170467 -0,970014677829226 0,0869112949002767 -0,0155147739230527 1,85557625479264 0,0291644977767001 -0,322313330277209 -0,487829694011097 1,12429887408311 -0,920402864364404 -0,287697365855652 0,487242703940867 0,336893910214228 0,332530210855601 0,418123485222922 -0,35220248597621 0,214124794278721 -1,05898851022966 -0,188869625017776 -1,57823398255305 -0,512444998552331 -0,36117665568717 -0,227909212310716 -0,756062308247037 0,29779566972785 -2,70404548901369 1,03725707401545 0,0310441774673301 -0,485719497750734 -1,03363558349786 -1,24121525633004 -0,696654550890493 -0,373104582673265 1,92411207053051 -1,08466105666453 -0,91103592429813 0,902524471218473 0,0184546773316043 0,428082647749017 0,16966453621991 -0,105167159377846 -2,15737069318389 -1,5014096547701 0,238378891874747 1,4138532300373 -0,289412969783805 -0,473962015597625 -0,585750128305621 -0,616923859800663 -0,303997631547918 -1,31918710924536 1,77535307747165 -1,61130798613035 -0,213071607003565 -1,25889949935188 1,11042877082773 -1,33993943586942 -0,878459462344322 -1,89279041655564 2,20994662331849 -0,913817064768968 0,0112172957688852 0,150974358103056 0,155678214616582 -0,590243846550115 0,912329380053207 0,0181919854430584 -1,01685484077545 1,10667649010195 0,36266805235601 -0,477455968014477 0,479687439133241 0,507475265438559 1,41203942318002 0,363350824302676 -0,504225658370128 -2,45892618813472 0,599343465700765 -0,752301186889578 -0,407199951898985 0,209647345400586 -0,606175014129684 -0,930441693607182 -0,481583299140795 -0,185529801186427 -1,66070312962462 -0,429888124403895 -0,784017555377725 -0,546990264603629 0,381592128723006 1,0594735271622 0,394998312020627 -0,221421188875027 -0,0677634344996018 -0,862798818651683 0,968835541200399 0,345478694983385 -1,44753613679763 0,237862875793916 -0,535978354909312 0,559822657959664 -1,13897348037808 -0,964810838630097 -1,35438807700545 0,675468490316626 0,733909411627544 0,750425441991679 -1,89558406165626 0,795692162323243 0,327136702264046 -1,23435746595831 0,287797603125508 -1,26527152013438 -0,460410143577334 0,355456652510838 -0,812725320907277 0,0677756606530653 -0,0270215331970067 -0,0359054071467498 0,0204029621523215 -0,263521016618815 0,746953315950859 0,407107504287909 -0,0772003145214277 0,868059423108588 -0,0221357732130053 0,313539313165521 0,155427980705708 -1,15247151240042 -0,410464797132967 0,272441667529413 -0,0798080328900671 -0,498695635874208 0,0205492194353555 -0,990572893038601 -1,5672665014488 0,719412371113412 0,332168831414873 0,265730730589814 -0,0131968777882757 -0,690346696661089 -0,957969326062923 -0,509711517922967 -0,178969498885982 -0,274774244825202 0,227174230548923 1,21690428443773 -0,233706320044399 0,18183158156999 0,459444215931721 0,567449438672407 -1,69153711242582 0,43929412408906 1,13445611409643 -0,90419131999055 0,647904301455197 1,11201533510058 -0,0865710855832993 1,77209062893939 -0,0304719412724881 -0,370741268008401 -0,902406319557838 0,310107859495185 1,51316146787626 -0,611121665242755 -0,154521912732876 -0,837489446898469 -0,911632768619404 -0,0371868094492889 -0,0198250529138718 -0,113171522664009 0,521716369618098 -1,50707570177129 0,150952252320531 -0,318176379993588 0,725323048181781 -0,671544311878847 -0,0436172279677323 0,570309441205167 0,875941916147769 0,138547915094757 0,800609067647445 0,25621001874614 -0,0635439152647558 0,354999347825933 0,256365772701425 -0,256471767564149 -0,0345780513522986 0,885234217143252 -0,708449307193476 0,525458839988715 -1,12956250250311 1,26011558755069 0,538322201963719 0,211173592664141 0,820945687942186 0,0888600761286761 0,509784579521833 -0,138316917792047 -0,00582567992590265 -0,496486200113261 -0,19677416790408 0,333825873193345 0,603243911150704 -0,573508930392357 0,656879971121601 0,389274319199834 0,0483498841368868 0,321718595560691 -0,201361471372531 0,428616057891654 1,7115975512662 0,61590820890532 -0,589421430052894 1,65846352661002 1,01236874727057 -0,728712924504354 -1,11893744431293 0,996206086524562 -0,416535315147695 0,837317298813878 1,3412320524949 1,20049453272539 -0,346203327294346 -0,764180216465392 -0,221403136696372 -0,912786921815944 -1,43325493945709 0,496068061581111 -0,486718903558383 0,565415874387443 0,124295139135881 -0,187871173010983 -0,0967542369780096 0,49101173797926 -0,464784487195506 0,237275540436614 -0,0689108632979925 -0,0955662888873173 -0,181339988816365 -0,871371978450138 0,240274970651606 -0,233841832537201 0,685789565309616 0,949253620515314 0,259468055808329 -0,374402594579299 -0,0282322662080081 0,399238459882822 0,620364686388954 -1,00562950337547 -0,285270457821151 1,17533207460478 -1,03620654067021 0,304224221393208 -1,20831858644378 -0,829167373025811 -1,06013882723308 -0,0742750844388809 -0,994739611408842 -0,0904159652530001 0,360055358619946 0,451092045091035 0,047752770647344 0,433907685209808 -0,552161013602006 0,324627916176972 0,574366194231621 -0,535335712423401 -1,72085384284884 -0,909648313645629 0,109593501847216 -0,328373263127105 -0,844498612881417 0,494518792308537 1,45442424930204 -0,0403949153033742 0,309975434303337 0,243563305729477 1,08853364831705 -1,73347750097905 -0,682226181592054 -1,31762921373569 -1,62726451629591 -0,848690526009861 0,544668547027632 0,878830701385457 0,0422488718503482 -0,283491694450155 0,470173251310642 -1,71762674441783 0,0963695372050336 -0,0353298803050044 -0,719072094753988 0,137353426117378 -0,573446797071044 -0,313455141994329 -0,794596461113835 -0,581845844278839 -1,15884518999999 -0,422712169720937 -0,645334145621315 -0,11618412557098 -0,70726328705995 -1,29671581784909 0,891716166206756 -0,32460239755516 -1,03470932367988 0,353008559576029 -0,485484716578203 -0,682617555991408 0,678153176601973 -1,56116452750771 -1,07589174312014 1,24028202815575 -0,280320161725977 -0,318174377654129 0,673904327903592 0,0671694642416928 0,304062473546962 0,161636611845115 -0,601657855818072 0,616894311631836 -0,777258366024834 -0,0976959602460873 0,318576456090612 -0,586411937318955 -0,315510908419868 0,509876564033782 -0,1283819999041 -0,756686978364876 0,380253802572998 -0,271100561418852 -1,5832050129995 -1,74861391663841 -0,216151412373029 -0,61052030935342 -1,59614830228108 0,000457612978538547 -0,129528578527941 1,09892270266488 0,17770809668955 0,508581683642861 -0,327549341361569 -0,90992479193414 0,00322154602725729 0,623887304962011 0,715667535628528 -1,16399359021159 -0,413482745479117 0,0300174986694139 1,36416631117864 0,921901110094455 0,267790925926275 0,484289738745225 -0,432079411380816 -0,00806197960219079 0,838103399544703 -1,45813885299849 -0,0154072568896289 -0,166076017920532 -0,814770096656096 -0,31568271266807 -0,379943801736185 -0,0208504407175645 0,640321953791796 0,534260609889486 -0,410304321283917 0,726982950600811 -0,682754561037544 -0,0950430209991816 -0,797740956013162 1,24981830686984 -0,246062478606616 0,182394532468906 1,1524213007968 0,118280318502227 -0,527647706428283 -0,971074671287801 -1,56321494182387 -0,521812994829871 -0,229972341584921 0,570494146929329 0,0173583744693424 -0,408090248404369 -1,53532498341768 -0,667763729372756 0,844820703679127 -0,871537058520824 0,284893440845653 -0,225054300172572 -0,115035110433764 -0,300416884996387 1,36152340530146 1,42523799451667 0,268305609200004 0,985003386273591 0,287516990778564 -0,0171254757908868 -0,157821556644095 1,30832959781894 0,444465366833231 0,159229231787189 0,934364431265745 0,832587271050753 2,1273406512428 0,638882779926888 -1,1382966657139 -0,949936039666044 0,683852726509599 -1,03729396703188 0,453166478813734 0,418953880629428 0,190377930185662 -0,292059959648595 -0,924219581865726 -0,393845787435491 -0,815246900170106 0,634423061038341 -0,00370770787476493 -0,0153698165838856 1,62046605775406 1,37093042684074 1,27726218388197 0,512309945462595 0,24293518510678 -0,0629785739073686 0,972011942952841 0,221955330929433 0,420725834914596 0,443886468246522 0,906437471735257 -0,149110030160768 -0,183290098622655 -1,27139383470606 -0,734434985976085 0,910339004029046 -0,807574810954533 0,492194502382743 -1,49481385326963 -1,0383388754788 -0,937829480748685 0,585542078092576 0,173062917100018 -0,562679634866971 0,46698787024973 -0,584578271249296 0,855862084783709 0,615713338669683 0,356224604531137 -0,947708134043489 -0,199144502209092 -0,133816314225264 0,431399305183503 -0,0357291610767475 0,342036589580698 0,542158878959522 -1,18359536165317 0,203292265525847 0,577175360264728 -1,51892106691876 1,06249744484778 -0,424860815712168 -1,02276616168803 0,267773506455747 -0,354488551665649 0,256762072111863 -0,389591114730806 0,392838862506515 0,186998774001301 -1,69065544354046 0,172703150239354 -1,29194040150128 1,99322829459096 -0,145506775637019 0,389147049651079 0,601045948902908 -0,539671247437451 0,180830625672866 0,731583389946385 0,78487857205688 -0,021075716465595 -0,0389152903103409 0,797320092606005 -1,04279345425877 -0,697301930123672 0,761593463740009 -0,492172231191889 0,261477293404646 0,055818349786216 0,774504123755855 -0,424347747841417 -0,0762840119496029 -0,618226254378802 -0,68298776074345 -0,149112171137806 1,26140926994383 0,151081093955317 0,181965587602046 -0,21170157767793 -0,463006186074961 -0,0333328970178535 0,22775420352611 0,044892995152181 -0,447362176915478 0,595797945333604 -1,38875859571957 0,252964437960137 -0,654573211466389 1,19941311302829 -0,432482633613053 -0,0766876857546984 0,897526667525729 0,651076898662215 0,774378216739406 0,81533697212154 -0,739231503366 0,0882180650770238 0,0311929482180916 0,0876688639060054 -0,527503845056315 0,876117611753482 -0,465359475364513 -1,77058314382283 -0,598599169195337 -1,190073861385 -0,403161272062436 0,155652517069251 -1,33087192507911 0,421520839558279 -0,0251682310372707 1,30419234098437 0,790305672721866 0,193945325978439 -0,364143909077808 0,210053636515744 -0,222478007308038 -0,177896525943705 0,927359384808813 0,484282773094543 0,250427367284361 0,406089989616889 1,07728451603127 -0,509685539540292 -1,11224549690639 -1,04919828482118 -0,84844811366491 0,659772971182858 -0,740585716079392 -0,835614423579886 -0,410442442178151 0,0473023308634473 0,488306498828855 -0,287398169895596 -0,626632301946085 -0,758130784226275 1,26309805032798 0,331707766505828 -0,29804209071213 0,523121412960075 -0,792566624057673 1,19338751270686 -0,575179779419929 -0,134367201939834 -0,691368687038034 -0,188219138592045 -0,112160901636638 0,582279051543967 -1,23624319751861 0,536837569959951 0,473727197633202 0,951571321051788 -0,84047534828386 -0,177511197183929 -1,22039939597356 0,236386412334159 0,931921792902033 0,589072247125372 0,701506242767114 1,69242065753271 -0,913990470672246 0,671588135440128 -0,111800780584945 0,763156656512528 -1,54051093015784 0,570667322778109 -1,33301251703752 1,22714070260287 1,12962711838842 0,755193674406771 -0,858145220848646 1,67362442067507 0,668662733192644 0,016535541936707 0,755855324992146 -0,552122619602505 -0,193631110845705 -0,905544814237806 0,16991379595676 0,577450031197061 0,360307698296624 -0,641843579811467 0,996326457419264 -0,00121176382405944 0,128259940527837 0,67958359688725 0,148865195622383 -0,827950858009416 0,615330214781112 -0,581651679697873 -0,480083667460249 -0,240303787934142 0,361225588900599 0,710384737147635 -0,580725020626254 -0,760776552763442 1,19216667530244 0,431514923169546 0,210900132058584 -0,616983765005196 0,220483126969633 -0,883139003122518 -0,219519152222723 0,789421350652899 -0,304395204012467 1,31344568293115 0,563800850449176 -0,41812986849281 -0,252376952405249 -0,0323022180079386 -0,146826297293603 -0,564828700210887 -1,27520574294468 0,321736686404332 -0,044980682892951 -0,807168064218997 -0,0130190703681675 0,160185404527428 0,447915289753523 -0,632330286692267 -0,320686543608573 0,371553185986708 0,514421389624718 0,798361771090537 -0,807430723382657 -1,42765378690911 -0,269566761061982 0,722420443032398 -0,447326040342322 0,387220662076 -0,104276921212909 2,28778819718476 -1,79162888394844 -0,728206663635894 0,550564391441732 1,81985126845098 -0,805257915619255 -0,796660122003345 -0,239715506384979 -1,08140774168369 0,418339731232786 -1,16623488693329 -0,0146419283689938 0,454133166967161 -0,851781505683881 -0,750005166779206 -0,705033276527814 0,0936451358544419 -0,0864638455892422 -1,36261305272456 0,677496166579896 -0,219951282865301 -0,75184210855746 -0,226096942256008 -0,797873138768426 0,0745994057510519 -2,36958099621214E-5 0,805011706939303 -0,568923278219157 -0,790634213145508 -1,11707568406322 0,718034098558895 -1,30845131322618 0,357063028468796 -0,395167285248144 -0,583911834722649 -0,863433458147149 
-0,869975566765635 1,28856627365897 0,45366203693899 -0,713236083714375 1,2508700491997 0,203913523949416 0,433198078296731 -0,797145432741153 0,888939416236468 -1,86058366105775 0,698188146671814 0,311562896060955 0,389122675497668 0,877652487023528 0,535300302689606 0,359890720232402 -0,0329186478793857 0,328113000514234 0,403166550310924 0,619163932171449 -0,0542124110458415 -0,524043551901496 0,575574131601777 -0,454478686182449 0,661360934236121 -0,222677144985842 -0,0302510929447417 0,637040077573238 -1,05056036558537 0,364202221701051 0,82575981789528 -0,0743022873573327 -0,122565650418693 0,547738192418619 0,792928512985691 0,618980354720661 -0,375440573975359 -0,280701447123403 -0,293859974303051 -0,233257396938525 -0,390021062373971 1,80513739167837 -1,24092401918013 -1,53749999709359 0,368645099893485 -1,37798506089304 2,05192488312756 -0,654311516682652 -0,580260476000469 0,922196323178281 0,47970340171015 0,703722877278005 -0,918869784778145 0,119372765394986 -0,310061347796334 -0,633240837660397 0,326235995171741 0,185753156306316 -0,296281386869662 -0,0820271345892461 0,380546895139807 -0,81661061805924 -1,32227436754061 -1,65331216823137 -0,423134810147457 0,80936415218915 0,412968692242194 0,616719795388985 -0,680388737007282 1,35245837220608 -1,00082287836234 0,241552710814833 0,434219230128064 1,67302330554501 -0,176976287870658 0,538726235628029 0,439917333367226 -0,860609028435413 0,19887826606978 -0,128239930270624 0,411295267772323 -1,49735261409061 0,474462802735744 1,12177416276468 0,308350268499437 -0,657029554906163 -0,937928273182866 0,0683001036628408 -0,554842925434283 -0,843656756700621 0,598583614092746 -1,18318816973894 -0,541455711727417 0,692010677640099 0,806857457818008 0,0358606177085699 0,95212435302382 -0,425720121478877 -0,864280760545761 -0,0567704056048639 -1,30799268288093 0,0330522443815891 1,07625682420944 0,571569147650484 0,921953574682657 -0,193880585906276 0,930898149156244 -1,05222804354622 -0,665828997010241 0,116802020908379 -0,459664509861673 0,124070740652024 -0,30232006360124 -0,720324704786396 0,434821851009275 0,901983467516027 -0,647140907050228 0,313413236174516 0,198705669409692 0,23224099472723 -0,510571603354416 1,82495956861873 0,478355089059408 0,385326307526091 -0,397853957355871 1,70621575281654 -0,601489869253375 -0,133334282717322 0,710972090695261 0,0107006622360364 -0,277259817579933 0,505591854186465 -1,24068892074816 1,28168054330616 -0,150059070169763 1,9269684960295 -0,223204784927493 1,16758076649014 -0,0827372280026383 0,328453205008275 -0,392070507425316 0,417354667996638 0,34873919064423 -1,29370835234684 0,10280814172886 -0,481435982373731 -0,0417384470224374 0,853658711698245 -0,402516219283209 0,874867157745087 0,403801220282812 0,168278542603387 -0,499404697117001 0,654988200773576 0,817449645827425 -0,461667046064787 0,852358202683446 0,558551622076412 0,464517992671634 0,269162438925701 -0,511849524378677 -0,499715707782145 -1,01571975551914 -1,36443558073044 -0,015658707929352 -0,574771322192759 -0,446035031747499 -1,94334934805798 -0,0581814822847997 1,38448320544331 -1,1902726679267 -0,537453739469404 -1,36067748321065 -0,355655069241483 0,318878209674805 0,315941258743765 1,419643821327 -1,1191786628771 0,782473009985145 -0,67756591065912 -0,0649063453083505 0,374630875051261 -0,732962978885304 0,572636981435527 0,0305501819305866 0,749931430311451 -0,609722931682316 -0,675964651145437 0,969419603020978 -0,64506761504408 1,12244953419866 -0,123024775192539 0,762745263539074 -0,325889750225961 -0,197983228932905 0,681003012449228 -0,118718775323232 0,74228688655234 0,788408540368054 -1,18467437322877 -1,29405636461492 -0,437878052690497 1,13005635229457 -1,3587203343003 0,575891244126626 0,368723108211668 -0,850058957887319 -0,846645788749792 -1,58953484865044 1,42016698678112 1,01398645098972 -0,638556556708354 0,12926848705283 -0,492477594385604 0,294110698646999 0,453560306049939 1,45112152066255 0,468663687488103 -0,291211204676027 0,371366048786774 0,15428779483154 -1,07579796327162 0,635030754354737 -0,908735124547378 0,387836917414227 -0,302317740274944 -0,59263291222536 -0,987183863577244 -0,697896350748248 0,795462281426074 0,410447072649598 0,0837656340402844 0,363436952920462 -0,793879838503824 -0,136555330537121 0,877034264592164 -0,147569362884707 0,265061780714715 -0,144595226114982 -0,667731119548838 -0,273039616637737 -0,121042609809963 -0,335903139846339 0,0297154049024427 0,33162456672696 0,169406906733756 -0,900660984043918 -0,295135974997946 1,54527462393444 -0,533411321684936 0,288118254338528 -0,105572742910518 -1,65671792949447 1,45231753779236 -1,40867480951372 0,765934930036371 -1,47497138291039 0,34640285566686 0,293241656906607 0,458455600848335 0,119455152253088 0,0810488280862231 -0,554815534780645 0,335518662918029 -0,638366128436421 -1,68889210857199 0,651558094242127 -0,0650236307552628 0,871411733976049 -0,775584740936842 -1,07100286026222 1,17819924025069 -1,2182027433922 -0,079336020688621 -1,25118252006143 -0,349027631992107 -0,319666036784103 0,150283096909442 -0,217569273583855 0,420563177567766 -0,288339911436413 0,276230140846163 -0,457057554885786 -0,158387766610446 0,454511596990431 -1,10391827200388 0,41290442522718 0,91291039296261 0,462587664894255 1,61029696496669 0,703501829289851 0,440526149041574 -0,544841724923949 1,54351516945013 -0,911831760472113 0,487394405193089 -0,933702891983634 -0,960783739427076 0,202281687990738 -1,50060912299625 -0,341455542938269 0,0843134807504746 1,43048960095541 0,200782871762495 1,78612206781477 -0,749296290099936 -0,0532189928407272 1,76528736249901 1,56826217356989 0,0730455725286175 0,0266674745303495 -0,381047886602637 -0,975704999089175 -0,683878063319457 -0,50936519728577 -0,1853445667728 0,6596303232413 -1,83049435766875 1,09452146114937 0,0188673091912629 1,06317914317475 -0,23351080775313 0,510968163699724 -1,04630765924817 -0,73633282403458 -0,527438317911427 -0,626270147713311 -1,04926538278383 0,0970217213142584 -0,378438641511683 0,255198943696291 0,732483549295771 1,5239387555942 0,636092128697641 -0,762681559989542 -0,418776809458 -0,746427651324254 1,30482851460919 -1,20980791495712 -0,586492621950447 -0,178386524137415 -0,273282081967069 -0,84824512350487 1,85275703858967 0,123728674092417 1,32083319035508 -0,806422199657919 -0,840572171675589 -0,570429882833387 0,0221915441340129 1,53339153750711 -0,345103681744231 -0,70070696910288 0,827914710194879 0,241136455388305 0,488750990606876 -0,685938561836105 0,706141374557093 -0,00504343828940269 -0,597098819152984 0,608768477754348 -0,154522641278541 0,973487871668868 -0,796556567815917 1,05150119581027 -0,232816952756903 -1,05156210910948 1,12514046563838 -0,805505934114841 -0,646992303549217 0,445015640372407 0,737348450814054 -0,0767874768888483 0,802805482002481 1,37638827712181 0,19796449156899 0,98855959108694 -0,402521171478846 -0,396881987950148 0,682109403940153 0,557382723677006 -1,32099042025014 0,784501154088381 -0,55725522244033 1,12117285228543 1,68526033994036 -0,506660733737761 0,528510476414302 -0,296610232750433 0,552446718983256 -0,573950547198798 0,971362920250728 0,1404025472008 -0,384747589941003 0,301890565650088 -0,789967032765178 -1,35099595104395 -0,245941280291326 -0,209472161817724 0,262393627510937 0,999846715767439 -0,491347509011264 0,875608358312679 -0,144559845611132 1,46160061398147 -1,06757901352404 1,73611794240046 -0,734158236458928 0,86340660368578 0,0791157702092642 0,423366561978969 0,0528694256260094 0,995423665771388 -0,511152985223548 -0,22707052335133 0,31402206445957 -0,397348079164515 -0,104808056369618 -0,793754636568031 0,0897271092386477 -0,371754039872864 -0,69347980485335 -0,762609942169631 -0,28931871953857 -0,918128345432493 2,13472203835982 -0,861893316292903 -0,0944184154734606 -0,521886759912605 -0,64829978966145 -0,943837894297791 0,186093654048883 1,21136272710431 -0,0595650403164474 0,505619676712864 -0,37567798302665 -0,251390405233388 -0,302462057090009 -0,933969159353525 -0,246365530422372 0,420814747869892 0,076562449745604 -0,548516331815595 1,90953943024208 1,17458803932787 -0,727154366875221 -0,332016681395258 0,698974160505039 -0,707876770105176 0,897909982124043 -1,13818617369803 0,52850412366172 0,68420704518258 1,38262237061228 -1,05021696680037 0,689256744548074 0,412165879370738 -1,71554848123712 -0,396521313258197 -0,717612799504821 -0,744476107210985 0,438167203561936 1,04221101705502 -1,05150340024419 0,000275222744527145 1,12185738502269 0,214772794967883 -0,625827610268286 0,923521021548277 1,70995972695208 -0,156289367275161 -0,323133390244766 0,225727841064299 0,222424689770965 -0,937017618344122 0,820179083861909 0,0448653692380517 1,05691814558042 -0,0290335007245268 -0,441379741340911 0,0902906301200048 1,12863971461608 -1,39303831975982 1,66060986520862 1,18329224497585 1,29294060683763 -0,186890627249411 -0,223176142684234 2,17338581314482 0,100857166131466 0,939211572326595 -0,00631593977101101 0,157943962626964 -1,39561588351537 1,3171977940319 -0,520992515864765 0,694705293191651 -0,214336129485693 0,748226715681737 -0,00113273990339798 -0,659878074059442 -0,875551047780875 -0,100052735680975 -0,344764678601814 -0,781808150018318 0,153943424308157 -0,837165953721271 0,859662672339552 -1,57656442489266 0,0682502915561637 1,33909327687026 1,45618940538535 0,322583856005998 0,306997505580716 0,565480888599167 1,24255817350599 0,269179064184173 -0,46257288523668 -0,108291369864677 -0,114534275614261 -0,648237771627325 1,63166843841345 0,317887365348362 1,2618220409379 0,826699046257932 0,147361628239153 -0,761092406787157 -1,22939458371143 1,10332858477453 -0,142153757213309 0,0687028529574698 -0,973447911379179 0,0579303180396654 -0,120603225266763 0,138055497070489 0,480095715844281 1,34812735687045 1,5382527238892 1,35434872760533 1,28284456401584 1,46762313757196 0,385354679550428 0,8664741239949 -0,229008857126255 0,312408947487306 0,544709893397972 0,740265122892496 -1,01028752392785 -0,501427081141895 -0,000125104287433344 -0,474683886713402 0,240794740993855 0,0432834110962964 -1,29049612822659 -0,310104430566614 -0,661444297540985 -0,735445768095182 0,633416033213302 -0,705654532586632 0,983462993642884 0,575954490073741 0,237325792536516 -0,424611161333439 -0,918565996640361 1,12794076323696 -0,704603581983849 -1,33977919847211 -0,577607848985262 0,061918912049194 1,18058311037406 1,7095107551827 0,381271128041709 0,569379520961084 -0,400835296134408 -0,124023870587395 -0,744894254675375 -0,759873238446687 -0,580934618931229 -0,624230799105984 -0,419967341696407 0,353377101410325 0,28579312004006 -0,915639930915116 -0,376699642410507 -0,141173379484086 0,053959076252462 1,01824349040447 -0,506976139019297 -1,21241390876221 -0,877779530646053 -0,56142679679698 -0,770100582958303 -1,07906964971059 1,29503698737965 0,382714078952409 0,175861158579495 -0,368068835406326 0,622226034149047 -0,391636574172134 0,221436322948197 1,15951974574217 0,886733843205143 -0,167615936053694 -1,3054989633213 -1,18781633056335 0,291957073368706 0,318108177268932 -0,0109984715786872 -0,588512812390453 0,349449560847488 -1,03714223772898 -1,95135865218091 -0,237126708076119 -0,347145858778722 0,799806842036791 1,11203475365732 0,780673846479336 1,56867230624007 0,647238649112869 -0,601714094665717 0,310451994230279 0,403209535924198 -1,45476245588609 -0,4096755463057 -0,148541630368972 0,322534727184457 0,740546343101591 0,447231846083176 0,39475607369417 0,401381814873485 0,501128987307487 -0,683206665544105 1,30109125034653 0,536290594261806 -0,8934834065179 -0,811694024211442 0,541697108086741 -0,255071439451321 0,527189596370628 0,906365006993203 -0,367565997136533 -0,228700055168975 1,91188060396136 -1,07882206457583 -0,731504261964231 0,302060378157548 -0,0235367549200613 0,261182412709913 0,700272894760405 1,25861773366614 -0,796139103916027 0,775055766403689 -0,763398879596699 -0,852188251023557 1,55076711459659 -0,141107859838566 -0,0311702665128043 -0,219195607439605 -1,03033997626936 0,253629368140243 1,65808215771188 0,163287901933221 0,0433561179112761 0,396671890202856 -0,551317275946246 1,27668536378945 0,838152244080817 -0,500017575525248 0,339359633450395 -0,447796268263549 -0,100612567812415 -0,469865126811644 0,56731237052878 0,262678452228056 0,301817523316395 -0,324353886941997 0,921049351506422 1,14289268701466 -1,47212301089903 -0,563478433667478 0,780676769714392 0,533363501381775 -0,874116003341548 -0,199209898678402 -0,851253019203487 0,302564605013136 1,22039921670596 -0,992695359739023 -1,08732082518174 1,83885694433904 0,407825808795814 0,405555563652637 -0,223276642612595 -0,666815281576733 -0,189551515959349 0,644610087874514 -0,727024016860479 0,453894096319595 -0,566779551661089 -1,30805088124343 0,187073397749792 1,3749408067304 0,143557182304747 -0,951730187232935 -1,61607779532806 1,38514379141436 0,0236420564277376 1,83927364313297 -1,32452461488463 -0,0167184844285754 1,00742026035768 -0,629734690140376 -0,334511372455751 -0,316321835125936 -0,744147027217138 -0,229827132808732 -0,553674419398743 0,00873429284904142 -0,156988114208696 -1,08883396470196 -0,896021740054652 -0,355804658134455 0,58943113506768 0,788065935562402 1,93043490164476 -0,703839638062634 0,264791108213744 -1,29270160501995 -0,174095503275097 -0,825058332019324 0,628176385217837 1,02872162962189 -0,4141322023651 0,438703826740484 0,195994953580766 -0,0162477297030946 0,00186317991779792 1,96955743770289 -0,49947730869334 -1,37875374611706 -0,53025591661895 1,22388233033535 -0,00164731420859085 0,272129026164295 0,67357247623163 -0,497981142757979 -0,0251779893599276 -0,999199726940057 -0,90988437251745 -0,741361602605366 0,0712742836671678 -0,144058919195969 -0,0461626686343249 -0,475665878629757 -1,07113455107183 0,355414288226752 0,737277965453017 -0,146767410237316 -1,02497836832486 0,190231773366493 0,399422927960288 -0,479653818060352 0,303581296243563 -0,243181267723602 1,68234881568822 -1,05680182258969 -0,307776264484306 0,17473363977284 0,518716382698359 0,536459887849366 0,308941347780803 0,315919682816366 0,399406878968663 -0,468615389360996 -1,60076958065162 0,365202825658214 1,27375554633207 -0,694563523037962 -0,479730021978889 -0,871630633716206 -0,496060133461397 0,43902709477515 0,464207686713138 0,266190688888485 
0,0837994444499342 -0,665779199722522 1,19086262188003 0,0812951479240038 -0,968535895351227 -1,22616293217934 0,460650081226467 -0,79172402881623 -1,53069158096582 -0,467999722100123 1,48684603086096 0,290022122319522 0,10246125099196 0,277014207377274 0,674486165741415 -0,712609238316251 0,242595321229446 0,627231008940491 -0,844652895976288 0,380806409839171 0,454256398007441 -0,44903026923009 0,498734356564818 -1,23558861209268 -1,50525811185434 -0,384487630920703 1,77001740446149 0,0181062474438555 0,499553936577766 -0,241355058707787 -1,68837937220507 0,552831908850164 -1,50730333936098 -1,9087371634416 -0,198999011132627 0,487172091155887 -0,477862492637702 -1,18554633411078 0,288354178101544 1,04913806484893 -0,719117570608461 -0,0235740384094944 -0,98939759403391 0,467640393081743 -0,514718942985274 -0,147977452322166 0,0547813410861395 -1,03711381777397 -0,474775864161066 1,02354274479954 1,91867526650342 0,448147440012716 -1,60668695862445 0,621021819790932 -0,0921257984829465 -0,588106848256233 0,15567771535805 -0,636108702610649 1,08859601104875 0,00877983332894831 -0,0894517970625179 -0,294885492088543 1,78699449248752 1,22232125809069 1,69688436721384 0,894509326836269 1,03560500903413 0,449919697506994 0,526979720090262 0,557980612403476 0,46068907007484 -0,0225867219877916 -0,0332062339472104 0,58072009922967 1,0089713952419 0,688319350769115 -0,284156470319305 1,01021092625336 -0,944902378650098 1,29685223868977 -0,582045466823884 -0,993603390700266 1,15944785011898 -0,182944430200599 1,13689784216125 0,42084131204592 -0,238965495092521 1,83924376844411 -1,05699658055341 1,39243811494933 -0,387737691987438 0,303317576495789 1,19085975223098 1,27747572182031 0,354187784701242 -0,142628567735804 0,49910280149649 -0,429068769567335 -0,0992702638888231 1,10507897182584 -0,0269516567918752 0,214726007546148 -0,637885686424448 -0,0200676097054847 0,436318209807979 0,0843381017215002 0,312657564032697 0,748141445899488 0,356259011403542 -0,859133950369065 0,350792579492567 -0,715107525768004 -0,907774438191101 -1,5510598151135 0,399448043854944 -0,658736189908162 0,539872969351129 -0,362211800805912 0,89223311086479 -0,0816429691419007 -0,13117014002277 2,3983233145037 0,0961083831611968 -0,0484776066839867 0,391379782074975 0,76137795758785 -0,207030890898643 -0,417809760569508 -0,10830278034548 -0,174451488942714 1,13048576313114 -1,12074480304682 0,861374525428525 0,370155437501938 -0,374694256317748 -2,00525276854764 -0,218407349476642 -0,664103998632983 -0,686522117129459 -0,742361312189922 0,773284042349985 -0,889006926253534 0,185959239496233 0,23293804305914 0,484262403900176 1,17849527440206 -1,62001625678186 -0,825116213646492 0,149396289389094 0,276396430581852 0,955431758615757 0,716558734245584 0,709037666599938 1,23269811136208 1,69880348327715 1,60183441753223 1,00814101016699 0,0482171041378265 -0,024270566880418 1,1079335434133 -1,09367107066552 0,558402449369615 -0,355826369190533 0,74170393934143 1,13221308354304 -0,540685760036119 -1,24598650437697 1,42285171998702 -1,45847188048766 -0,161636233604398 0,997608117541377 -2,1574597822077 -0,81957757533947 -0,848191070387021 0,677725345913162 -0,677518954111829 1,15000167158745 -0,729599209110652 0,340323992684852 0,107093574320287 1,34396996180496 0,468699451017152 -0,449460778676325 -0,32492350757529 1,01579942670293 0,578400805104296 -0,130301047883252 -1,31675902275372 0,279925223676437 -0,39000273559603 -0,393096242571956 -0,956228681017971 1,0345486995569 0,667631748816307 0,181045066116846 0,770210284012797 -0,179313872577454 0,074855878228462 -0,242155786688474 -0,038199433086488 1,498532593432 -0,504649619229218 -0,842001959843861 -0,890920619892909 1,60232389967528 -0,446795126959957 0,809673240462379 -0,384710861716201 0,731360679120732 1,03831683510419 0,736650501688911 2,40110829589524 -0,274888338181322 1,54755403037502 0,532914902108102 0,00820193406731087 0,340782193488664 1,56737775797686 -0,589105826331609 1,32262290679809 -0,343956250546378 0,680186138098513 0,46025916923855 0,155976980838108 -1,64283421096769 1,46211117151213 0,591415977198287 -0,256810626799329 -0,828000551653252 -0,269077175024022 0,52337660393999 0,694473979278668 -0,465285390317443 -0,960500533395326 0,602046410839091 1,0075982112609 0,00301739135608939 -0,512497645165133 0,659664514995986 -1,87582980749014 1,12754762564284 -0,711053438497292 0,75194512318548 -0,214004293521587 0,855941136809937 -0,254827743705874 0,253809393924186 0,838486613641945 0,234052700296918 0,349090484845829 -0,599152397617769 0,21543736493591 0,556096460685244 0,247097730798706 0,459088868048696 -0,112072686710819 0,347053234529919 -0,457284394599273 -1,0406877509267 0,224217397424335 -0,793171858703332 -0,788333836030523 -0,981707939916619 -0,779122192161175 -0,398476253711036 -0,308746646932541 -0,417472237361715 1,90607744428414 -0,26515013009343 -1,06282113342083 -0,0351299647905989 -0,188322419752892 0,24697734041003 0,291174192250957 -0,776217822607799 -0,791280329808129 0,654894920280322 -0,0704205093026149 -0,961998322891926 0,666850684299295 0,481485343695548 -0,571965292595832 -0,138496190634891 0,0645745274821927 -2,01052975503436 -0,206587346687934 -0,471739812438255 -2,76783417455773 -1,5524870173846 0,138558626046693 -1,12348268960078 -0,456957787106904 -1,05097464560477 -1,49047391944745 -0,314157476823792 -1,02131593830657 -0,344589091577051 0,458757115035721 -0,785789037244613 0,693512038419759 -0,650918085521814 0,437070984533872 0,696602696618796 0,836842166918467 0,51467895210226 -0,0822534929266105 1,09586322948449 0,485543099876585 0,918939521396996 0,499455071303262 0,583135985638754 -0,858158146575681 -2,40752268554253 -1,52585239091016 -0,36156408469404 0,0147315887192841 0,0189726829323413 -0,929161082635055 0,611997361278025 0,39700432176279 -0,975710054656145 -0,202499253622682 -1,05893580557741 -0,0811002982772029 0,762581388675324 -0,774954083371461 -0,0509367051400598 -0,00165663474619027 0,325556326610539 0,895215999679336 0,0979512459197564 0,559230413645957 -0,969843489748188 0,304416021230745 -0,560531217625228 0,736345651951132 -0,302871874252236 0,314031312291036 -0,315286798277425 -0,756307926167741 -2,04571676342998 -2,83463998566482 -1,5210206866469 -1,53166874109322 -3,46282521032616 -0,939571692432235 -1,20014946313285 0,377123524190324 -0,578409041918429 -1,56692921656824 0,262474406158224 0,269844290761571 0,0167341243280702 0,794414792171179 0,814290282303205 -0,207204585002032 0,0531350661576516 -1,03960332392877 -0,393267817307641 -1,36056544615215 -1,4755289223457 -0,27707682423504 2,05143619510337 1,27220583579317 0,843366793378239 -2,60125213292384 -1,68625965759583 -1,49350454448344 0,0644871050369288 -0,433346371916267 -1,40745623871345 -1,52328104498127 1,63452623971914 -0,985589088964071 0,0707052380239851 0,241741421912987 -0,970960131009553 0,251396880337144 -0,0348248823207547 -1,00780724859365 -0,0766393320344105 -0,152024881880128 0,141931562749935 -0,603418934394023 0,44627148147923 0,153728979792334 0,0176133425689802 1,31397156245768 -0,872422278882547 0,250360565981864 0,300070274357702 -0,0580516509257846 -0,467594179167332 -0,267900088158779 -0,440237457133375 -0,766741894950103 1,17405639305371 -0,683078237720393 0,0011194456853049 -1,13448389084473 -0,381551290717754 -0,408918602526296 -1,01736216847896 0,189456115658223 0,0351228791149052 0,494377124767996 -0,383874956685589 -0,205942174531573 0,128348721573588 -0,161605444617397 -0,441494356037425 -0,844979733481168 0,307877227480855 -1,08630259846168 -0,867154469364062 -1,38054276328245 -1,04646713482466 0,571178147447301 -1,15400201116736 -0,815889168488182 -1,01374312991274 -0,863489291416146 -1,69928804306138 0,104472774840467 0,747437934760638 -0,170135306324159 0,367410919115894 -0,295303407246639 1,06815547281106 -0,0528635791326568 0,421179727431781 -0,401708372969246 0,453538751108136 0,679487716283233 -1,39141917473632 -0,0797734874352256 -1,27542357927727 0,153148226730361 -0,225562170847391 -0,461955913327322 0,90208399567487 -0,35970388668522 -0,711024946135283 -0,111957150439483 -0,611833576311926 0,0702246245230062 -0,0904780848454108 0,780034007631509 -0,713942518457797 0,64642732852813 0,452208094328662 -1,64554878313585 -1,46554940102447 0,769912178576885 0,0563112693516061 -0,360156273273642 0,0886153320101565 -1,00963415335771 0,19435520787632 -0,191382795778813 -0,0546348556379208 -0,479361181701805 -0,875211478735587 -0,195500125340522 -0,645499792835683 -0,609340427348277 0,204082526203152 0,108910163081377 -0,22624192683091 0,685395429383542 0,90750715067019 -0,0157352485050344 0,125342912415489 -1,23161544345735 0,247095519448151 0,581032878176694 -0,15405461048253 -0,830332717403811 -0,268878539222836 0,384207413179139 0,38057235393043 -0,383913258297698 1,0457014602121 -0,250889250396876 0,904535043975154 0,204019509610808 -0,314819782912306 -0,513537980243303 1,17201009402741 0,426309360655367 -1,0594661060509 0,472456842013176 0,10146154729444 -0,0368192522459001 0,357463146340781 0,846773706870397 -0,590928875918185 0,0638700208327207 0,191612965812154 0,311837855641245 -1,56975201276862 -0,21177159857558 0,350378314636097 0,252402853889474 1,51317504474583 1,02329447204347 0,557733820829961 0,484883012466651 1,46380866110529 0,990749395129575 -0,940874710459324 -0,121809525447655 1,2807133003174 -0,545593330002295 0,17192557317227 -0,887735503711504 -0,49100346964632 0,711539899252684 -1,17892140916446 1,0134327784586 0,123133360415901 -0,79863590679931 -0,162383775703062 0,687887223132207 0,422585055427355 -1,59902014511386 1,22354317161793 -0,384446583413649 -0,450298307580475 0,573652945145263 -0,432880902285809 0,061505261192889 -0,232844798259017 0,268070386706719 -2,39919776761066 0,223703631943376 -0,186190245610544 -0,622784386758816 -1,14386954545622 0,455722214263791 -0,865393842744152 -0,868756068003995 0,264359123852292 -0,53382953571812 -0,289495477190197 -0,978334931637195 1,41228678796995 -0,896060840501466 0,20939417070079 0,803836232361348 -0,246183916980133 1,06657419187367 0,406858920752802 0,942886758002038 0,926864270755431 0,892320878473675 -0,0257906108364281 0,571767311154858 -1,29415717211195 -1,28248766944055 0,0327968448717665 -1,38072526847453 -0,527355950401805 -0,363623502361501 -0,242961628967178 0,426024747518654 0,144324210337682 0,257327277084054 -0,295186902510037 -0,638575312312761 0,445357549414179 0,991239050403978 0,130233620654802 -1,87479270436838 -0,601637184749983 1,38650515487123 -0,272560804939468 -0,618353699004815 -0,519763729952487 -0,0757255119980268 -0,392400389868913 -0,547014758949092 -1,43121099801428 -1,19535063945932 1,08974552949917 -0,785153723852991 -1,0856878827848 0,431938601874905 0,334141385313579 -1,29214086789587 1,28566124403018 0,302798133085252 1,31902226914056 -0,847568446562579 -0,0467215540284726 -2,35286069066038 -0,755692606810059 0,38835503511378 -0,45775043139682 -1,33764231785081 -0,122671154654639 -0,282097085931084 -0,185393101169821 -0,388909611258292 1,1606154291132 -0,553165545146762 -0,676485539656961 1,72292474620002 0,168723501815546 0,668624228731728 0,733280065663387 0,0469168933698499 -0,0359501730217196 0,554694495456505 -0,195791772029886 -0,0910931234577702 -1,20999567196216 -0,9744156590027 0,642815674329343 -0,25441566337967 -0,330901942987045 0,49385396436867 -0,110080901739182 -0,583925981220257 -0,257171661541272 1,49491578028149 -0,441225402070303 -1,04066001779852 0,0427349452368177 2,12375992822568 -2,91333080799475 -0,566269568873527 0,20156342511712 -1,11404180794865 0,463344118007549 -0,768992821982637 -1,16159158477399 0,871702106158555 -1,07153950512745 -0,506777518281639 -0,576154942393106 0,211960646715749 0,484706229497411 -0,988891309558748 -0,371163301645083 0,500142842232534 1,52892985800142 -0,149511374505536 -1,0292907417062 0,26473953130082 0,71481524303304 -2,06008424766101 0,102796210186628 0,265092085540578 1,05197971796109 -0,821023722038739 -1,36312559969872 -0,0271416584064172 -0,11371320852855 0,193608474836229 0,0542785878604793 -0,751030111244318 -0,54738078171763 0,197305586927344 0,247478602939961 -0,881083633614092 0,652199507694959 -1,0790953303906 0,245965309101577 -0,170287884885021 -0,264071727837691 -0,932115621908569 -1,07894321247867 0,670444617617189 1,14911772818875 -0,452300011021505 -0,169656214631094 -0,0574658489442991 -1,21052497724176 0,244434389059494 -0,128243728674578 0,485642805136533 1,36486896332179 -0,526617781737958 0,489561997718512 -0,362997218315576 -0,279737939121799 -0,280595828767294 -0,121932399473492 1,12277734353544 -1,43202286348397 -0,136264993445996 0,421303326149619 -0,528997805809927 0,773548415883256 -1,58218270778982 -0,0502630825916362 -0,680475713444207 1,51023137852753 -0,289803546787065 -0,149761277484602 0,993143182080475 -1,28321036063384 0,286644829769397 0,569506794817817 1,81585076406809 0,437391863602674 0,617396949932005 1,73280146429261 0,111333304448684 1,12671097688912 1,57913311404434 -1,0664777687096 0,999482545878138 0,954306011599902 0,366357891613308 1,14934465667599 0,0611980862415458 -0,134299439307929 -0,34659100504015 -1,29477767661184 0,638114144528686 1,34901675637107 -1,16667991885148 0,413394003599011 1,0853131301516 0,860278025185393 0,194925342202382 0,669784525112257 -0,770463259108866 -0,517524142548058 -0,107331648056288 1,17323653452415 0,967664561452225 -0,298600653082152 -1,57376876582049 1,78718848846017 -0,20888331222305 1,05331208812939 -0,585444969594798 -1,14354377169774 -0,407000880155293 -1,53216662404847 0,604534814711251 -0,501853105980602 0,357250421777641 0,526638241840002 -0,375940988376652 0,924110283161149 -0,248754048301998 -1,13360518582889 -0,243722677152439 -0,82994518970351 -1,12244353644467 -0,726907894895507 0,360500548212772 1,31349399192385 -0,853147300756571 -1,85437909863149 -0,934871269318288 0,64819384661788 1,70402743761092 0,0303799325863102 0,444712846894851 0,132767828983599 0,179248878370086 -0,358197219082097 -0,949961222648717 -1,78943927930925 -0,225686207673989 1,11129429471582 -0,176527817232601 -1,5233428807347 -0,0500997526099082 0,805609191559162 0,765271655336896 1,83762461177724 0,678711995475861 -1,04434865378851 -0,606817439608432 -0,0571169709915762 0,56464325990088 0,736761219367355 -0,918922390616985 
-0,142249179176264 0,529768495822453 -0,146058891882815 -1,23154488095088 -0,585872436500422 0,729781048956595 -0,0918661481270728 -0,43426660472553 0,275478519007222 0,449300995283797 -0,0424359990307388 0,0684485795644546 0,792513421000153 1,41091523919561 0,126086916361402 0,171379265716799 -0,743795193153015 1,34602979314616 -0,10674477210079 0,706501522445765 0,882316109187486 0,509379924958178 0,0648516369982206 -0,91176778643831 0,554821469336575 -0,148891626958632 -0,975617485733932 -0,41526626489753 0,125456890238572 1,12582271717825 -0,605994644644196 -1,841772111408 0,192163874329503 -0,191788631498331 0,112445912905029 0,527603362861201 -0,872954102863537 -1,20401094274107 0,946986637051533 0,975072278523175 0,137405835868201 0,839763754270572 0,279229008297865 2,13969366177893 -1,31724500023878 -1,52441765871868 -0,335999926418866 -0,797646518375335 -0,0215221304863165 1,06317087429176 1,54160766627177 0,369252878936161 0,300872352160379 -0,530267726153117 0,063667789647264 0,706471524315473 1,59703351326567 -0,905621696374482 0,124076700292104 -0,0893418194142517 1,38434291469876 0,28268976226111 0,129103124985419 -0,480087221222311 -0,939265603048923 -0,926508272286034 0,963718675618854 1,17774723555712 0,0293774861380141 -0,383190744867115 0,211414988068177 0,93901996571012 -0,744156853795383 -0,340201967625711 -0,361541405218448 0,0865874581076317 -1,22774062501763 -0,251234853754892 1,06066691995056 0,0428818998720298 0,336903798955104 1,03821231004826 1,07945874030652 -0,0975390295732759 1,19079409875998 -0,596532672057334 0,366572925029733 -0,160060237714598 -1,95504072481807 -0,192675753089544 -0,659294503638035 -1,05029935923777 1,37799360110601 0,133964481751607 -1,20631494007015 0,287309802591937 1,92478840274823 -1,36275273393185 -0,0722755689998917 -0,31656069782448 -0,602457896431951 -0,890285407553448 -0,576301759777369 -0,887658202487057 1,29609118500952 -0,429701268349067 0,167077048621062 0,668959833624397 1,89533027622176 -0,440844416317594 -0,335688699772423 0,105887276866579 1,05215128944488 0,420501700168318 0,765223373581061 0,636468943849686 -2,05943354325804 0,504378491901955 -1,68971317359186 0,281674996692574 -1,13192566139354 0,932864562950059 -0,0757187827570937 -0,417122282188365 -0,0858007347676226 -1,14445766516118 1,19783511278683 -0,67213599915981 -1,33013919468561 -0,528709223817906 0,260136285179938 0,104336169595634 0,487075035318308 0,539345299468747 2,32917149978367 1,41555133439558 0,511036080591129 0,699766909726334 -1,30055621226938 0,73358844730267 0,604653072621466 -0,649065744706823 0,136508685897286 -0,038706683091254 1,27841499150362 1,17713247721824 -0,0923491811135962 -1,48644835649435 0,84598482708618 -0,854209566978427 -0,598922543170124 -0,565557978825073 0,74862820223664 1,61809895026423 1,38734390677539 0,293721946463905 0,22939747209538 -0,332269868972903 -0,151401337462591 -0,808288726781761 -0,715656227307288 -0,0566728984325025 -1,358481644206 0,995988022352751 -0,442415002668614 -0,155768145858696 0,380550043007693 0,427332448661633 -0,781943262309442 0,248758250441794 1,0207387273045 0,785824012397012 1,10877857083319 0,232331992960185 -0,0337933244029787 0,389271655834232 1,15240174434936 -0,900129244997184 -1,12447605132511 -0,771591958495915 -1,6260488546319 0,631793668284303 -0,631466134934606 -1,6801648188511 0,602188651719854 1,79332928850138 -0,837502852248465 0,159545658914823 0,432240028051351 1,43047986030549 -0,0433942357309374 -0,465872798079111 -0,103288542454132 -0,334449014247823 -1,88113408244908 -0,556215792141454 0,966705878771251 -0,186734580050043 -0,836415025700743 -0,221428552983434 0,803284561452239 0,326869185443704 -0,226518643192789 0,0891635841230988 -0,268183670928892 2,13273550200297 -0,340258752239355 1,33938567298569 -0,983167031329473 0,729065963662684 1,26226768725285 -1,19209468274291 -1,3420882057397 0,280756426351594 -0,500395276818302 -0,124389596127578 1,61007023976823 0,195217152863433 -0,388156780790199 0,126568604481214 1,45814853040934 1,03846784424661 -0,257785529078681 -1,17124797610185 -0,189648429288261 -0,575306835961951 -1,37531623178364 1,08494379614626 -0,446439544158939 -0,758439799227293 -0,668215489967695 1,11387038369882 0,0385124342012969 0,56768866462637 0,20091707297547 1,73402905741392 -1,1438510313041 -0,128871028840431 0,144821233311433 0,82515296534143 0,79815693298062 -0,146087951699999 -1,16717002807134 0,277046573871743 0,197905972303656 0,308277912638706 1,0712892385095 -0,0662719337058774 -0,0813084305687518 1,55812081414376 -1,13149264181187 -1,24281548387655 -0,247264632332951 -0,0367697045293844 -0,329334469936538 -0,124705603412656 0,984808764679495 0,619306681530721 -0,412424094818705 0,519654859978746 -0,91372302160057 0,131104493872922 -1,75757142858176 1,12472641876377 -0,337901646361929 0,340385469888198 0,100684560347545 1,60019415402244 0,705053423088123 -0,378873131091497 -0,88498746154081 0,3001408905519 -1,50240072609269 0,862047464526093 -0,796315068022401 -1,11767800400555 -0,946888768121299 0,956455729577158 0,0953299173228701 -0,956642730828309 0,333228224768403 0,80899454529172 -0,0359212558483098 0,521178179444995 -0,0975079743801735 0,917320984896044 -0,282683164690282 -1,16852841304823 0,113408242610538 -0,092224321295961 0,0888106906318947 0,581465297983359 2,16639467604305 -0,0906656562319901 -1,38622237125975 0,927122846768925 -0,14112938487437 0,745891748853591 0,635078702540861 0,420445518783002 -0,0821258388121117 -0,780017525687111 0,363934568410715 -0,498694278967898 -0,375766837382863 -1,36791293400551 0,380294013051998 -0,210492439700394 -0,16446673017628 -0,248586326768979 0,323582665905001 -0,374994624430949 -0,275704577504116 0,351894076179624 1,40512618686158 0,682456887340735 0,194286979126208 -0,0153912815254358 0,176090641450139 0,849216600641478 -0,373658001296306 -0,238011088107425 -0,467418649761955 0,700053574677961 -0,673140285991162 0,474135676565657 -1,51669663145672 0,910728160052333 0,414897534439003 -1,39136054162535 0,894732171249435 -0,459064922408646 0,126208157588933 -0,550712329589028 -0,945519778270409 0,500709923559562 -0,0771464663478929 -0,854977243140771 0,0816773787715083 0,391986755980066 -0,16593643064252 -1,23859343657269 -0,543036333718596 1,25195362947577 0,326016071284106 -0,477965328519457 -0,957828424490478 -0,169273968545056 0,019316352442101 1,26413436688059 -0,847644885946849 -0,390785716662893 -0,228413183307075 0,173453482011636 -0,566040893061148 0,41738670729696 -0,463509803870112 0,23704140924639 -0,775283796460162 -0,56412155000949 -0,893074967977842 -0,445248825324618 -1,10131835184007 1,24739969163221 -0,823068279075321 0,32479624005197 0,416418718963434 -0,900004447095683 0,349595562838913 -1,33086191340999 -0,381947969039336 -3,05820389840399 0,429495879079811 -0,0537158238917791 -1,05648071432867 -0,917356794210023 -0,170876044998216 -1,72076195097467 -0,941729408098096 0,957396568022375 1,16949833424459 0,106306738106814 0,659703584053054 -0,998474099103315 -0,148366523532119 1,43230915007232 0,319621977315236 -0,83904925352453 -1,16567543055488 -0,196461890730025 0,890347738726932 -1,34208020239475 -1,05181003259823 1,28322525464564 -0,975372587977928 -0,863183732662522 -0,117536171504111 -0,619117962481885 -1,21188890161575 -1,19171858933113 -0,485691621576523 0,190729476824112 -1,19933721625632 -0,560297978321401 0,681505818208933 -1,17216252695097 0,35370184425426 1,17160583893449 -0,848993751044055 -0,0983261952631582 1,31401223544359 0,588496325791363 -1,62159659528379 0,169104788571987 -0,11902272964875 0,457491880334248 -0,359943979444417 1,14074983162954 0,373427774216725 -1,01105373545185 -0,0228516850593398 -0,577791633313604 0,343497254940152 -0,458843445621859 1,16302972065007 -0,839114572431644 -0,021667297926549 -1,37331160490551 -0,50788868105225 0,67741395162612 -1,19910692019629 -0,0070511666887957 -0,444700036876835 0,0178497257403692 -0,0990260429416863 0,665189801527112 -2,10587317032434 0,50792327861821 0,359645836851484 -0,17815199346818 1,10743709030647 -0,880713427882101 -0,165824662455256 0,531933517091268 0,206442447559777 1,36821760124647 -1,31929416914097 -1,04945299782485 0,231613935645135 0,831038927489963 1,32410317733561 -1,61838831724498 0,321608768947134 -1,39944025479527 0,798030773359602 -2,07574321109374 -0,881468065292727 0,174164988279951 -0,545604374925678 0,621029320003138 0,823922236878543 0,740693350374009 -0,340345730471173 -0,581503635602155 0,346744945379555 -0,986483157329859 0,893235289019648 0,513450329989667 -0,536522293953325 1,22847608765427 -0,267214964663774 0,195512001208589 0,329884559412016 1,40755504092987 0,79229746597783 -1,34405494180164 0,270007131423542 0,199252862695682 -2,11342356584482 -0,185544297316623 -1,51907669497614 -0,0553318040537136 -0,568660582385411 0,829860544408829 1,04739360488305 0,0231427521751119 0,400485522147322 1,14557912254856 -0,899216859952818 1,10095033418011 -0,327354733591762 -1,73240989157607 2,03821145614915 1,13687920679914 -0,695376673239203 -0,44102460686359 0,409140897707269 -0,0850660004726594 -0,000798874412048525 -0,39884308463709 0,145839596801769 0,609958893703562 0,850625987444757 1,34889069518055 -0,739813933582129 0,680290205234185 0,331392095091748 -2,05108897835006 0,417058232333714 -0,8644968195511 1,00429494739867 1,21998535729332 -0,343040591964226 -0,807450015552923 2,01525831853212 -0,282745545936321 -0,10239724668181 0,205699811855381 -0,325536397415997 -0,773805034127475 -0,325202325812091 1,05309062809407 -0,692082488851091 0,334604715355879 -0,806191087702838 -0,308413297301755 0,0886346491827827 0,728272337250505 -0,949777549284823 -0,881015154133089 0,147066711027126 0,0770289416536368 0,692309862593108 0,130846209305905 -0,299140484534771 0,252021123453089 -0,977278776298067 0,871688119794929 -0,501201956354559 0,346253795598323 -0,80124166485769 -0,343258345104249 1,10255870507072 0,390455868860111 -1,15722002287651 -0,0981456861820205 -0,92726706645852 -0,813734162674845 -0,32565976036573 -0,536126894156706 0,069660425350825 0,00740225605000245 -0,0981636353788444 0,00661665242520374 0,0639992846009597 -0,297947971757122 0,886709116107022 0,466291929489039 -0,0500259781063102 -0,525749867900304 0,529920774829991 0,495386742202597 0,755953141492553 -0,179921848490079 0,814088251078974 1,24520520831844 0,218641615892272 0,141255071854123 -1,22129314163585 0,221149240562419 -0,172294895260372 -0,156970046912571 -0,418086297193438 -1,55385922453526 1,15541539273051 -0,75310283666087 -0,781512061508647 -1,16435087457953 -0,439602136286189 0,295927674735146 0,558808177368179 -0,0439685146474596 -0,840481124016539 -1,20052501531817 0,394593874892814 -0,202383579030685 0,237133851643488 -0,197233045637719 0,333381117123206 1,10129344727676 -1,36902520786105 1,14278669132615 -0,395371676839083 1,17098937844793 -0,447415840666254 -0,754857265185914 1,6079189617887 -0,654419717424429 -1,14291074012933 -0,666850539715796 0,482770517154149 -0,359295401755294 -1,06316709488155 1,63196756922219 -0,533614533972762 -0,589806911396172 -0,30635756653759 -0,266046390285498 0,966056081913432 0,139811264508908 1,28157231807524 0,0520607080554477 0,827259854073604 -0,524547042377275 0,334217769654175 -2,05706990371321 0,0184599538802894 1,45241673529901 -0,750069326189638 -1,70836881735143 0,459894887168973 -0,536971941181353 0,137372524635646 -1,53989544178032 -0,158139346099476 -1,79263777979822 -0,124318883807638 -0,149551285849435 0,0942500419205144 -0,869060091722114 -1,08588735038321 -1,1725666704413 -0,802262777005412 -1,5613590357702 -0,55595105493427 0,108360332236537 -1,59342561112158 0,170036792271835 0,0465694227712535 1,55674801767986 -0,43944780605181 0,149732172014984 -1,13384887643677 0,517767265084279 -0,491628317966944 0,545153024800307 -0,381170054124948 0,542137149659351 -0,602363247585013 0,55041526374397 0,17652438669316 1,29537764012576 -1,10874555310494 0,151711110927706 0,464771764150428 -0,915055051125561 -0,727861289913907 -1,32830604040271 0,588137584850905 -0,480869623626717 -0,642804358865883 -0,929370378139718 -0,421792308310648 0,408954441429734 0,537078489769682 -0,820053150210422 0,0585730426350638 0,673163985590277 0,614042533519965 -1,16575725839718 -0,394654796121872 -0,104084830832659 -0,22604386121256 -1,2605738159466 -0,414694771561802 0,716377083861017 1,32733731810651 -0,594594913056547 -1,07817648550001 -0,728385099056658 1,11581038547548 -0,151236632347432 0,734792485526959 -0,704712661072301 -0,191558992959292 -0,800662227654454 -0,899015802101056 -0,110494336202501 -0,516064785362313 0,178355339566814 1,14366269233335 -1,17562916014332 0,0135003966288707 0,570896228198081 -0,193127359657975 0,613245481167566 -0,891035451524981 0,341667071025622 -1,37434582301434 -0,259510268688209 -0,675809820467545 -0,309763455320736 0,0308705533246614 -1,29242199915788 0,20712811608577 0,142439610370425 -0,983448817018004 -0,781544471218313 -0,560554079766804 -0,768217006775874 0,0401682682248763 0,466288120197282 0,0379534512319476 -0,69074902940482 0,817506516839197 2,13812764761323 -0,731215928701885 -0,888696331997302 0,162253846485903 -0,315738641458508 -0,790248487512077 -0,572086936763352 1,33871199697578 -0,0023123930989822 -0,538155989559387 -1,27508777060129 0,0510128233919516 -0,0834383353940286 0,118431646113406 -0,419523228927339 0,557756326826423 -0,0815171522389814 -1,94002092495555 -0,658366868721625 -1,19286722261798 -0,432843051783004 0,668840091878606 1,3341138408494 1,25252673717392 -0,210794778548638 -0,136082939251471 0,31152807581203 2,11087556834683 -0,513999766663937 -0,231591424904642 -0,910294622795378 -1,44130627597116 -0,311109973014182 0,0458106148042806 0,895740935144618 1,14803045961422 -0,212689675690197 -0,395606431223697 0,494769880845785 0,837559906856908 0,417983099539838 -0,696298073647341 -0,418362410049505 -0,976162264005065 1,18608987180129 -0,27439232380009 -1,62114689528059 0,76740430257545 -0,442000806265453 0,122337848794768 0,762152376102619 -0,188544599858835 1,9468913453954 0,368619528240578 1,05256021030888 0,435378187483284 -0,806103634236204 -0,0696679679388557 -0,140584720279165 0,116992447734507 -0,720840154694025 -0,191702796714093 1,62611026916966 0,398697078240537 1,04146908010053 1,11950309240411 1,71430908120675 0,729104442040452 -0,0842440538916443 
